%YAML:1.0
my_svm: !!opencv-ml-svm
   svm_type: C_SVC
   kernel: { type:LINEAR }
   C: 1.
   term_criteria: { epsilon:2.2204460492503131e-16, iterations:100 }
   var_all: 1764
   var_count: 1764
   class_count: 2
   class_labels: !!opencv-matrix
      rows: 1
      cols: 2
      dt: i
      data: [ -1, 1 ]
   sv_total: 1
   support_vectors:
      - [ 0., 0., 0., 0., 0., 0., 0., 0., 0., 0., 0., 0., 0., 0., 0., 0.,
          0., 0., 0., 0., 0., 0., 0., 0., 0., 0., 0., 0., 0., 0., 0., 0.,
          0., 0., 0., 0., 0., 0., 0., 0., 0., 0., 0., 0., 0., 0.,
          -2.56080832e-03, -7.60278432e-03, 0., 0., 0., 0., 0., 0., 0.,
          -2.50524934e-03, -7.75495078e-03, 0., 0., 0., 0., 0., 0.,
          -6.00000931e-05, -3.06076426e-02, -3.06076426e-02, 0.,
          -5.40531473e-05, 0., 0., 0., -1.71278298e-05, -2.08694496e-06,
          -4.67016967e-03, -1.40013238e-02, 0., -9.11225743e-06, 0., 0.,
          0., -2.08694496e-06, -2.39900735e-04, -1.64872520e-02,
          -1.83495265e-02, -3.58633188e-05, -2.14978136e-04,
          -1.35468610e-04, 0., 0., -3.13041710e-05, -5.11310391e-05,
          -1.66091993e-02, -1.83495265e-02, 0., -5.60291264e-05, 0., 0.,
          0., -1.54649370e-05, -8.78307401e-05, -1.53008709e-02,
          -1.83495265e-02, -2.78936914e-05, -1.16962219e-04, 0., 0., 0.,
          -4.94585220e-05, -1.22880423e-03, -1.56169264e-02,
          -1.76105835e-02, -8.44599621e-04, -1.44475873e-03,
          -7.86257442e-04, -1.00555168e-02, -3.48333805e-03,
          -8.14278843e-04, -9.49592388e-04, -3.04818316e-03,
          -9.09641199e-03, -1.02929550e-03, -1.31426705e-03,
          -6.11533644e-04, -1.76105835e-02, -1.76105835e-02,
          -1.01531565e-03, -5.43152346e-05, -5.13313944e-03,
          -1.53370127e-02, -3.61235434e-05, -6.90496163e-05, 0.,
          -7.02073856e-04, -2.43529867e-04, -3.16143160e-05,
          -5.23867175e-06, -2.05862496e-04, -6.15739846e-04,
          -2.40823670e-06, -9.01733074e-06, 0., -1.76105835e-02,
          -6.87873503e-03, 0., -1.09100683e-05, 0., 0., -1.09755863e-04,
          -6.57555720e-05, 0., -1.84034426e-02, -1.43358707e-02,
          -1.08591827e-04, 0., 0., 0., 0., 0., 0., -1.43532958e-02,
          -4.71930578e-03, 0., -1.15555144e-06, 0., 0., 0.,
          -5.10284417e-06, 0., -1.84034426e-02, -1.48769850e-02,
          -1.15555144e-06, -2.54221345e-06, 0., 0., 0., -6.56079874e-06,
          0., -1.84034426e-02, -1.84034426e-02, -2.54221345e-06, 0., 0.,
          0., 0., 0., 0., -6.68716989e-03, -2.29478278e-03, 0., 0., 0.,
          0., 0., 0., 0., 0., 0., 0., -3.76662842e-06, 0., 0., 0.,
          -5.89590218e-06, 0., -3.04896776e-02, -3.04896776e-02,
          -3.76662842e-06, 0., 0., 0., 0., 0., 0., -9.38062370e-03,
          -2.69623776e-03, 0., 0., 0., 0., 0., 0., 0., 0., 0., 0., 0.,
          0., 0., 0., 0., 0., 0., 0., 0., 0., 0., 0., 0., 0., 0., 0., 0.,
          0., 0., 0., 0., 0., 0., 0., 0., 0., 0., 0., 0., 0., 0., 0., 0.,
          0., 0., 0., 0., -2.61441502e-03, -7.73148425e-03,
          -3.94119488e-05, 0., 0., 0., 0., 0., 0., -2.66986177e-03,
          -7.60482065e-03, -6.04798006e-05, 0., 0., 0., 0., 0.,
          -3.54622258e-04, -3.05652879e-02, -3.05652879e-02,
          -2.05031899e-03, -2.75709957e-04, 0., 0., 0., -1.46091470e-05,
          -9.29864254e-05, -3.69731919e-03, -1.11759063e-02,
          -4.72730135e-05, -7.23606208e-04, -2.68585602e-04,
          -1.04177149e-03, -4.13587200e-04, -8.81335640e-04,
          -2.14915941e-04, -1.31719736e-02, -1.65531002e-02,
          -8.63037567e-05, -9.53480427e-04, -4.09620377e-04,
          -4.76267142e-03, -1.70655979e-03, -1.94258697e-03,
          -2.05539545e-04, -1.43079003e-02, -1.65531002e-02,
          -6.90446002e-04, -1.64321344e-03, -6.54258474e-04,
          -4.81105410e-03, -2.11197464e-03, -1.13674905e-03,
          2.93324934e-04, -1.22827319e-02, -1.60807557e-02,
          -4.90855600e-04, -1.49522547e-03, -1.31468137e-03,
          -1.65531002e-02, -1.28406798e-02, -1.91749353e-03,
          -1.60218668e-04, -1.77537836e-02, -1.77537836e-02,
          -4.01377292e-05, -3.18333565e-04, -1.38360236e-04,
          -3.75409122e-03, -1.29483768e-03, -8.04210722e-04,
          -6.55068652e-05, -6.00605085e-03, -1.77537836e-02, 0.,
          -6.46658445e-05, 0., -3.62770625e-05, -1.34016318e-05,
          -2.33934334e-05, 5.86969603e-04, -5.03334403e-03,
          -1.66494679e-02, -7.62544441e-05, -1.32548375e-04,
          -9.57948447e-04, -1.77537836e-02, -1.68124922e-02,
          -4.25942242e-04, 2.63503240e-03, 1.89471745e-03,
          1.44493009e-03, 0., 4.44861435e-05, -1.59098665e-04,
          -7.92269781e-03, -2.79510347e-03, 2.60251993e-03,
          -1.24672835e-04, -9.55391116e-03, -2.87152231e-02, 0.,
          -2.69262498e-04, 0., 0., 0., -1.24672835e-04, 5.79519259e-08,
          0., 0., 0., 0., 0., -2.87152231e-02, -1.39455749e-02,
          5.79519259e-08, 2.16846331e-03, 1.60818151e-03, 7.79603084e-04,
          0., 1.46281832e-06, -2.60221059e-05, -4.00357507e-03,
          -4.21120552e-04, 2.04956811e-03, 2.16846331e-03,
          -1.38623815e-03, -6.67154230e-03, -3.90643254e-05,
          2.69860129e-06, 0., 1.00894214e-03, 1.60818151e-03,
          2.16846331e-03, -2.11429551e-06, -1.39984522e-05,
          -3.84986924e-05, 0., -6.46601256e-06, 0., -1.59651395e-02,
          -5.30874729e-03, -2.11429551e-06, -9.24670603e-04,
          -1.59330037e-03, -4.33476968e-03, -2.79331085e-04,
          -1.59747011e-04, 0., -1.82195604e-02, -1.82195604e-02,
          -5.24189500e-06, 2.59695062e-03, -2.49802647e-03,
          -7.32671330e-03, -5.14334824e-05, 7.63550270e-05, 0.,
          1.41952175e-03, 1.93214417e-03, 2.61059729e-03,
          -6.02956279e-04, -1.64553728e-02, -1.82195604e-02,
          -8.62375484e-04, 1.60171403e-04, 0., -1.72061082e-02,
          -5.92205161e-03, 7.08351145e-04, -1.69484247e-03,
          -1.68795837e-03, -4.20330791e-03, -7.98042747e-04,
          -4.60780575e-04, 0., -1.67756230e-02, -1.20335771e-02,
          -8.03253556e-07, -7.70017854e-04, -4.59232688e-04,
          -9.73192451e-04, -6.04624511e-04, -3.57791723e-04, 0.,
          -1.18867261e-02, -3.97094199e-03, 0., -1.58915995e-03,
          -9.79005545e-03, -1.67756230e-02, -1.86445110e-03,
          -4.21778677e-04, -1.32424475e-05, -1.63436513e-02,
          -1.22542866e-02, 5.83933492e-04, -9.91432695e-04,
          -1.69149355e-03, -4.33751196e-03, -1.34469452e-03,
          -7.93226296e-04, -1.70260046e-05, -1.67756230e-02,
          -1.65128410e-02, -1.58557941e-05, 0., 0., 0., 0., 0., 0.,
          -6.77586766e-03, -2.28342554e-03, 0., 0., 0., 0., 0., 0., 0.,
          0., 0., 0., -3.94118479e-06, 0., 0., 0., -2.80447148e-05,
          -1.75106288e-05, -3.05332728e-02, -3.05332728e-02,
          -2.84366142e-05, 0., 0., 0., 0., 0., 0., -8.94852076e-03,
          -2.95052864e-03, 0., -9.34927739e-05, -4.77009779e-03,
          -1.37376115e-02, -1.95720917e-04, -4.66268466e-05, 0., 0., 0.,
          -2.28839217e-05, -4.03828686e-04, -1.71210598e-02,
          -1.80784464e-02, -9.03234992e-04, -3.20391060e-04, 0., 0., 0.,
          -1.08968692e-04, -7.08110689e-04, -1.65416356e-02,
          -1.80784464e-02, -9.62266931e-04, -3.96558928e-04, 0., 0., 0.,
          -3.57527577e-04, -7.60754570e-04, -1.57035384e-02,
          -1.80784464e-02, -8.76492704e-04, -6.67816086e-04, 0., 0., 0.,
          -2.81100569e-04, -5.46372961e-04, -1.75918154e-02,
          -1.75918154e-02, -1.40282616e-03, -1.02010788e-03,
          -3.14002769e-04, -4.01723105e-03, -1.74693437e-03,
          -3.53228941e-04, 5.32109698e-05, -6.36594277e-03,
          -1.49018792e-02, -4.04560938e-04, 7.36897346e-05,
          -1.16137299e-03, -1.75918154e-02, -1.75918154e-02,
          -4.01614961e-04, -3.66693101e-04, -6.28565811e-03,
          -1.73868313e-02, -4.26278275e-04, -4.05801169e-04,
          -2.21577397e-06, -7.94188454e-05, -1.00183352e-05,
          -1.33888199e-04, -2.16504613e-05, 4.90606413e-04,
          1.73007825e-03, 2.35252711e-03, 3.10465321e-03,
          -1.81488824e-04, -9.32123233e-03, -3.50868609e-03,
          1.97932695e-05, 3.50989343e-04, 1.70869636e-04, 4.45582438e-04,
          1.10374771e-04, 3.61597311e-04, -8.47907213e-04,
          -1.77562572e-02, -1.57395042e-02, 1.50397173e-04,
          1.78183720e-03, 1.43990538e-03, 1.46907603e-03, 1.32746602e-04,
          1.28578919e-04, -4.56517824e-04, -1.77562572e-02,
          -9.12315957e-03, 9.22081585e-04, 1.39485841e-04,
          7.39740848e-04, 1.46907603e-03, 9.30530136e-04, 1.81329413e-03,
          -5.92084194e-04, -1.77562572e-02, -9.97823756e-03,
          2.41849702e-05, 1.27361924e-03, 1.36744860e-03, 1.44145882e-03,
          8.20868474e-04, 1.18423544e-03, -1.21076556e-03,
          -1.77562572e-02, -1.77562572e-02, 6.03038003e-04,
          1.51807256e-03, 1.12058839e-03, 9.04025685e-04, 1.30751978e-05,
          8.71968768e-06, -1.35383030e-04, -7.03336112e-03,
          -1.98980025e-03, 1.49921014e-03, 1.49086851e-03,
          -2.88191601e-03, -9.88294184e-03, -6.22421794e-05,
          1.34531765e-05, 1.62336564e-05, 1.11177680e-03, 1.12321833e-03,
          1.51719584e-03, 1.47230295e-03, -2.67271628e-03,
          -8.09535012e-03, 8.51900695e-05, 1.89832834e-04,
          -1.16608839e-03, -2.02664938e-02, -2.00604796e-02,
          1.02130068e-03, 1.01113855e-03, -2.00787131e-02,
          -2.02729218e-02, -3.23482760e-04, 2.85107817e-04,
          -3.66001746e-06, -7.65909674e-03, -2.12217076e-03,
          1.48992194e-03, 8.13875115e-04, -8.88280943e-03,
          -1.76041611e-02, -2.14754429e-04, 1.48103165e-04,
          1.40908262e-04, 1.48248475e-03, 1.45336986e-03, 1.55841920e-03,
          9.68581880e-05, -1.73820276e-02, -1.76041611e-02,
          -5.16112719e-04, 4.11999674e-04, 1.30225380e-04,
          2.72911602e-05, 6.02762557e-05, 3.71208211e-04, 3.57282144e-04,
          -1.73585452e-02, -1.76041611e-02, -3.82818835e-04,
          1.26244500e-03, 9.19269107e-04, 1.43834564e-03, 1.42998283e-03,
          1.08555122e-03, -2.49210789e-05, -9.29120928e-03,
          -1.76041611e-02, -2.68668518e-04, 1.85361388e-03,
          1.11390243e-03, 1.48248475e-03, 7.68884900e-04, 1.40515214e-04,
          -3.05064372e-04, -1.16383918e-02, -1.87426768e-02,
          -8.44101713e-04, 5.79060521e-04, 1.37992116e-04,
          -1.66729223e-02, -5.99643728e-03, 1.80570583e-04,
          -2.29874204e-04, -1.15094194e-03, -3.15210992e-03,
          -5.07680350e-04, -3.39782768e-04, -3.15393336e-05,
          -1.87426768e-02, -1.87426768e-02, -5.72025674e-05,
          1.62036140e-05, -1.89167354e-03, -5.42994123e-03,
          -3.26780355e-05, 3.16619175e-03, 2.41181906e-03,
          1.62370224e-03, 4.55276953e-04, 2.13942003e-05,
          -2.90537469e-06, -8.35842457e-06, -3.71718925e-05,
          -3.35166526e-08, -4.12107911e-05, -1.55023008e-05,
          -1.87426768e-02, -8.17535911e-03, -3.81409845e-05,
          -1.60665888e-06, 0., 0., 0., -2.13503135e-05, -8.45907834e-06,
          -1.83853563e-02, -1.43964458e-02, -2.04042572e-05, 0., 0., 0.,
          0., -1.13682506e-06, -2.65137305e-06, -1.42612113e-02,
          -4.75889584e-03, -3.16047090e-06, -7.30299575e-07, 0., 0., 0.,
          -2.60697816e-05, -3.26343834e-05, -1.83853563e-02,
          -1.49786761e-02, -3.73329676e-05, -3.45012406e-04,
          -4.28379935e-05, 0., 0., -1.10061395e-04, -2.09392121e-04,
          -1.83853563e-02, -1.83853563e-02, -1.47922074e-05,
          -2.35103373e-03, -1.53696723e-02, -1.74993500e-02,
          -1.50260457e-03, -1.36630016e-03, -5.76011254e-04,
          -1.00225396e-02, -3.62069602e-03, -1.75084174e-03,
          -4.44561418e-04, -5.19739464e-03, -1.52010256e-02,
          -3.34384909e-04, -3.40319879e-04, -4.67962127e-05,
          -7.81701296e-04, -2.47182150e-04, -1.70381129e-04,
          -2.14532716e-03, -2.94506550e-03, -9.18564945e-03,
          -6.10904361e-04, -1.43202010e-03, -1.75284839e-03,
          -1.74993500e-02, -1.74993500e-02, -2.15494772e-03,
          -1.82189135e-04, -1.92718886e-04, -6.62295439e-04,
          -3.89207198e-05, -4.15745395e-04, -4.70807601e-04,
          -1.74993500e-02, -7.36981723e-03, -5.84521098e-04,
          -8.31984507e-04, -9.97526199e-03, -2.76112147e-02,
          -4.20897384e-04, -1.35818776e-03, 0., 0., 0., -6.67818822e-04,
          -1.24295548e-05, 1.25838676e-04, 1.61571486e-03,
          1.68918050e-03, 2.46059312e-03, 6.97681447e-04,
          -5.13044000e-03, -2.35143211e-03, -1.24295548e-05,
          -9.21220402e-04, 0., 0., 0., -1.72762491e-03, -6.20253501e-04,
          -2.76112147e-02, -1.56569947e-02, -1.09451578e-03, 0.,
          -3.73521587e-03, -8.26469250e-03, 3.88055632e-04,
          2.48072110e-03, 1.68918050e-03, 1.68918050e-03, 1.70605941e-04,
          0., 1.15524836e-05, 1.69012768e-04, 1.21384009e-03,
          1.26962073e-03, 1.82385836e-03, 2.71883764e-04,
          -7.29609514e-03, -2.90460978e-03, -2.31253566e-07,
          5.95943493e-05, -3.00484663e-03, -8.50803219e-03,
          3.68192821e-04, 1.80547498e-03, -1.16597058e-03,
          -1.98591314e-02, -2.00377405e-02, 3.10872747e-05,
          -9.40215032e-05, -3.98899755e-03, -1.00731440e-02,
          5.62123241e-05, 1.78463792e-03, 1.28904416e-03, 1.23365864e-03,
          2.57539825e-04, -8.54991958e-06, -6.95627532e-04,
          -2.00379789e-02, -1.98756028e-02, -2.26670853e-03,
          1.67026918e-03, 6.13545999e-04, -7.98183028e-03,
          -2.51499703e-03, -9.21093579e-06, 6.87593594e-04,
          -4.24046954e-03, -1.23039028e-02, 7.43129567e-05,
          9.93651571e-04, -4.84696095e-04, -1.36853848e-02,
          -8.93794931e-03, 5.26246848e-04, 5.70233678e-04,
          -9.55531467e-03, -1.36741744e-02, -1.56305614e-04,
          1.36493461e-03, 3.37815174e-04, -1.22943474e-02,
          -4.00860142e-03, 8.46174255e-04, 5.42403548e-04,
          -9.91188735e-03, -1.36822611e-02, -7.42964912e-04,
          1.00728031e-03, 1.93827160e-04, -1.22943474e-02,
          -4.18608682e-03, 1.01055473e-03, 1.16507348e-03,
          -3.62208672e-03, -1.22808050e-02, 5.18096727e-04,
          1.45384355e-03, -3.05675290e-04, -1.36752613e-02,
          -1.14672314e-02, 8.54911108e-04, -4.90325547e-05,
          -1.89107601e-02, -2.03304682e-02, -1.12543625e-04,
          1.82970497e-03, 7.62734911e-04, -7.39118643e-03,
          -2.65827798e-03, 1.19288619e-04, -1.99793649e-05,
          -2.89691216e-03, -8.07015877e-03, 4.43677534e-04,
          1.82986842e-03, 1.28319091e-03, 1.22718432e-03, 1.81218013e-04,
          1.09181210e-05, 1.63348508e-04, -2.10393080e-03,
          -7.07039703e-03, 8.77311570e-04, 1.81330345e-03,
          -4.72636282e-04, -2.03613769e-02, -2.05103289e-02,
          5.70943594e-05, 1.26197465e-05, 2.60033034e-04, 1.23862585e-03,
          1.28607010e-03, 1.81889196e-03, 3.97632743e-04,
          -1.12100327e-02, -3.99087090e-03, -2.22429499e-05,
          1.60241655e-07, -8.44995317e-04, -1.78855634e-03,
          8.62859946e-04, 2.50809290e-03, 1.71655242e-03, 1.50746142e-03,
          1.16089745e-04, 1.60241655e-07, 0., 0., 0., 0.,
          -4.38394272e-05, -1.02245001e-04, -2.74717100e-02,
          -1.21891499e-02, -1.34232105e-04, 0., 1.57775386e-04,
          1.71655242e-03, 1.71655242e-03, 2.50809290e-03, 8.37627449e-04,
          -3.03132785e-03, -1.19480386e-03, 0., -2.49134209e-05,
          -1.81221124e-02, -2.74717100e-02, 0., -1.24617014e-04, 0., 0.,
          0., -2.49134209e-05, -8.80108757e-07, -2.33656669e-04,
          -7.14170747e-04, 0., -7.36609172e-06, -2.30944024e-05,
          -1.34834033e-02, -4.54628840e-03, -1.36670997e-05,
          -1.64746027e-03, -3.91274737e-03, -1.10704526e-02,
          -5.52742102e-04, -1.03142986e-03, -8.97004385e-04,
          -1.76259130e-02, -1.62569936e-02, -1.01487769e-03,
          -8.62443994e-06, -6.30918890e-03, -1.76259130e-02, 0.,
          -1.96245273e-05, -3.43252782e-06, -6.05875917e-04,
          -1.98792754e-04, -9.09323899e-06, -1.29309390e-03,
          -1.76259130e-02, -1.76259130e-02, -7.10668624e-04,
          -1.08932587e-03, -6.77926815e-04, -9.78481118e-03,
          -3.87088442e-03, -1.30068057e-03, -2.55957420e-04,
          -4.56773847e-07, 0., 0., -2.98204832e-04, -8.19795649e-04,
          -1.82328317e-02, -1.45800924e-02, -5.31319005e-04,
          -2.27866578e-04, 0., 0., 0., -5.64867922e-04, -8.52778438e-04,
          -1.82328317e-02, -1.55807966e-02, -6.25144283e-04,
          -2.05638044e-05, 0., 0., 0., -3.86358079e-05, -1.86976322e-04,
          -1.40405158e-02, -4.88643395e-03, -6.86198182e-05,
          -9.70620458e-05, 0., 0., 0., -3.02069006e-04, -1.00801280e-03,
          -1.82328317e-02, -1.82328317e-02, -3.57801444e-04,
          -9.50368121e-05, -1.02088106e-05, -7.85514421e-05,
          -2.76103719e-06, -3.03156732e-04, -3.71887902e-04,
          -1.53814498e-02, -5.64915547e-03, -2.83629633e-04,
          -5.83950168e-05, -3.05672572e-03, -8.17035139e-03,
          -1.27681444e-04, 3.07849841e-03, 2.33862316e-03,
          1.72248820e-03, 5.41215646e-04, -9.83046448e-06,
          -4.30838525e-04, -1.96082052e-03, -4.33619088e-03,
          -5.17919485e-04, -9.45192238e-04, -1.41488982e-03,
          -1.77501440e-02, -1.77501440e-02, -4.31881257e-04,
          -1.02205900e-03, -1.77501440e-02, -1.77501440e-02,
          -1.56946166e-03, -4.31604189e-04, -3.70133086e-04,
          -1.63798779e-02, -7.28680054e-03, 1.21802252e-04,
          -3.32485477e-04, -9.68057290e-03, -1.74191967e-02,
          -6.25967688e-04, 1.47702324e-03, 7.93213840e-04,
          1.49794109e-03, 7.44923193e-04, 1.19228505e-04,
          -7.06958308e-05, -1.74191967e-02, -1.74191967e-02,
          -1.42697420e-03, 8.59847001e-04, 7.28271087e-04,
          1.47769367e-03, 1.44354487e-03, 1.25753658e-03,
          -5.13457926e-04, -1.74191967e-02, -1.74191967e-02,
          -9.72379232e-04, -2.17281486e-04, 1.16559742e-04,
          1.17092583e-04, 1.36789182e-04, 2.67475465e-04, 5.92010911e-04,
          -9.44209192e-03, -1.74191967e-02, -4.57568531e-04,
          -7.43077981e-05, 1.32117159e-04, 1.49794109e-03,
          1.46879291e-03, 1.73410855e-03, 3.93459573e-04,
          -1.91127136e-02, -2.02444401e-02, -1.49258936e-03,
          1.07886044e-05, 1.06632569e-05, -7.22757401e-03,
          -2.35119951e-03, 1.30035705e-03, 1.45079149e-03,
          -1.74746395e-03, -6.92500127e-03, 1.56722599e-05,
          1.90445557e-04, -7.14957074e-04, -2.02630516e-02,
          -2.00407580e-02, 1.10104377e-03, 1.45772903e-03,
          -2.34411098e-03, -8.63293931e-03, -1.71066247e-04,
          -2.67779706e-05, 1.02072681e-05, 8.25340510e-04,
          1.13521842e-03, 1.51253026e-03, 1.53663615e-03, 1.13578362e-03,
          1.09085406e-03, 1.64126341e-05, 1.00124735e-05,
          -1.43805257e-04, -1.16835833e-02, -3.67339537e-03,
          1.51722494e-03, 1.16494205e-03, 1.45103550e-03, 1.45143911e-03,
          7.67623598e-04, 1.12633931e-03, -5.59874868e-04,
          -1.78504325e-02, -1.55745801e-02, 4.86403675e-04,
          1.52265697e-04, 7.68670056e-04, 1.48185494e-03, 8.90213181e-04,
          1.81753538e-03, -2.93028657e-04, -1.78504325e-02,
          -9.07426607e-03, -1.86860925e-05, 1.75736833e-03,
          1.45187113e-03, 1.48185494e-03, 1.39525480e-04, 1.45166472e-04,
          -3.66049528e-04, -1.78504325e-02, -9.35731735e-03,
          8.95539299e-04, 4.42138466e-04, -9.18451333e-05,
          -5.11107210e-04, 1.31820925e-04, 4.13369649e-04,
          -8.27365788e-04, -1.78504325e-02, -1.78504325e-02,
          6.68882058e-06, 2.76125356e-05, 4.78074857e-04, 1.65829179e-03,
          2.40576221e-03, 3.13342805e-03, -3.65824053e-05,
          -4.59053833e-03, -1.59764860e-03, 1.30927183e-05,
          -7.19210175e-06, -7.06012268e-03, -1.86202936e-02, 0.,
          -1.50474489e-05, 0., -3.99654855e-05, -1.17471363e-05,
          -7.19210175e-06, 2.45635398e-04, -6.70403568e-03,
          -1.73985325e-02, 1.84198114e-04, 7.58239301e-04,
          -1.29959721e-03, -1.86202936e-02, -1.17568122e-02,
          -3.07364593e-04, -1.45582762e-05, -1.86202936e-02,
          -1.86202936e-02, 0., -1.51092710e-04, -8.12324579e-04,
          -3.37574049e-03, -1.32012507e-03, -2.26079908e-04,
          -1.01575470e-05, -1.47389388e-02, -1.82533842e-02, 0.,
          -2.45332358e-05, 0., -2.27524879e-06, -7.60348655e-07,
          -1.01575470e-05, -8.27287840e-06, -1.65642165e-02,
          -1.82533842e-02, -9.27536967e-05, -1.07739848e-04, 0., 0.,
          -7.36932343e-05, -1.75100067e-04, -7.48525690e-06,
          -1.66259706e-02, -1.82533842e-02, 0., -1.51794366e-05, 0.,
          -6.14830924e-06, -2.05465903e-06, -7.48525690e-06,
          -3.30290527e-06, -4.91942093e-03, -1.47690345e-02, 0.,
          -7.49054743e-06, 0., 0., 0., -3.30290527e-06, 0., 0., 0., 0.,
          0., -5.07071236e-05, -6.87782234e-03, -2.26338767e-03, 0.,
          -1.19142551e-05, 0., 0., 0., -2.10159837e-04, -1.97515986e-03,
          -3.04728169e-02, -3.04728169e-02, -2.76767707e-04, 0., 0., 0.,
          0., 0., 0., 0., 0., 0., 0., 0., 0., 0., 0., -4.83881959e-05,
          -9.01054405e-03, -3.10951215e-03, 0., -1.13071268e-03,
          -1.94527232e-03, -4.12864191e-03, -9.09308088e-04,
          -1.20812724e-03, -5.46251424e-04, -1.67120658e-02,
          -1.30110364e-02, -5.81680360e-05, -2.13695038e-03,
          -1.06289992e-02, -1.67120658e-02, -1.68556161e-03,
          -1.39156589e-03, -3.26011213e-04, -1.62724890e-02,
          -1.20907407e-02, 5.42224094e-04, -8.66556016e-04,
          -4.58712020e-04, -9.36183089e-04, -3.98668140e-04,
          -5.16219414e-04, -1.88210961e-05, -1.18324151e-02,
          -3.90037103e-03, 0., -1.92950119e-03, -1.74198940e-03,
          -4.37629689e-03, -5.91769523e-04, -7.44327379e-04,
          -3.84326486e-05, -1.67120658e-02, -1.54328365e-02,
          -9.95026585e-06, -7.50731037e-04, -1.21217947e-02,
          -1.86547749e-02, -9.21134604e-04, -7.48461403e-04,
          -3.96585019e-05, -1.73040908e-02, -4.85356990e-03,
          5.43273927e-04, 2.52968981e-03, -2.01138947e-03,
          -5.25258947e-03, -4.56909765e-05, -9.07036374e-05, 0.,
          1.36007636e-03, 1.87703967e-03, 2.59007583e-03,
          -7.94607447e-04, -1.16959622e-03, -3.19240359e-03,
          -1.93208412e-04, -2.92063720e-04, -9.99078475e-05,
          -1.86547749e-02, -1.86547749e-02, -7.79247785e-05,
          -7.59683826e-05, -1.39756894e-05, -2.77725303e-05, 0.,
          -9.39801175e-05, -8.87944479e-05, -1.86547749e-02,
          -8.03000852e-03, -7.59683826e-05, 2.18847487e-03,
          -5.50596269e-05, -2.47401046e-03, -8.70324657e-05,
          -3.99232931e-06, 0., 6.91991590e-04, 1.62819307e-03,
          2.18847487e-03, 2.18847487e-03, 1.62819307e-03, 9.33258387e-04,
          0., 0., -9.57097072e-05, -3.82913998e-03, -5.69235533e-04,
          2.18847487e-03, -1.42539677e-04, 0., 0., 0., -4.84528282e-04,
          -2.48722557e-04, -2.76086628e-02, -1.17031876e-02,
          -1.42539677e-04, -2.49528748e-05, -1.78537089e-02,
          -2.76086628e-02, 0., -4.15777940e-05, 0., 0., 0.,
          -2.49528748e-05, 2.63171480e-03, 1.89063128e-03,
          1.38510449e-03, 0., 5.45173643e-05, -8.31977595e-05,
          -4.83856723e-03, -1.66761864e-03, 2.61727488e-03,
          6.80618512e-04, -5.86989895e-03, -1.77130327e-02, 0.,
          3.62198567e-04, -1.00018340e-03, -1.86054446e-02,
          -1.20150326e-02, -2.47149059e-04, -3.97821168e-06,
          -7.02759204e-03, -1.86054446e-02, 0., -7.08983043e-06, 0.,
          -3.36297271e-05, -1.76007670e-05, -3.97821168e-06,
          -1.06877378e-05, -1.86054446e-02, -1.86054446e-02, 0.,
          -6.02133914e-05, -3.25393223e-04, -3.51421349e-03,
          -1.53486396e-03, -5.83145127e-04, 5.91484248e-04,
          -1.23761129e-02, -1.63536686e-02, 0., 2.45938078e-04,
          -2.36530625e-03, -1.67466421e-02, -8.92272033e-03,
          -1.01996923e-03, -8.60647651e-06, -1.47652002e-02,
          -1.67466421e-02, 0., -2.80502631e-04, -1.70779671e-03,
          -3.71436845e-03, -1.78372581e-03, -7.18543655e-04,
          -7.62817126e-06, -1.42927682e-02, -1.67466421e-02, 0.,
          -1.63232340e-04, -1.02587906e-03, -3.88213014e-03,
          -2.02062097e-03, -1.21186452e-03, -4.58511704e-06,
          -4.20863600e-03, -1.26555841e-02, 0., -1.27789463e-04,
          -7.75093038e-04, -8.70691787e-04, -6.41300867e-04,
          -5.48647018e-04, -2.36132146e-05, -3.05403024e-02,
          -3.05403024e-02, 0., -5.65158989e-05, 0., -1.37729940e-05,
          -4.60269848e-06, -2.36132146e-05, -5.22195342e-06,
          -2.52839783e-03, -8.00043996e-03, 0., -7.09338428e-06, 0., 0.,
          0., -5.22195342e-06, -6.02521641e-06, -2.62891455e-03,
          -7.85699952e-03, 0., -1.71564898e-05, 0., 0., 0.,
          -6.02521641e-06, 0., 0., 0., 0., 0., 0., 0., 0., 0., 0., 0.,
          0., 0., 0., 0., 0., 0., 0., 0., 0., 0., 0., 0., 0., 0., 0., 0.,
          0., 0., 0., 0., 0., 0., 0., 0., 0., 0., 0., 0., 0., 0., 0., 0.,
          0., 0., 0., 0., 0., 0., 0., 0., -6.84075570e-03,
          -2.22749426e-03, 0., -4.31493281e-05, 0., 0., 0.,
          -1.48295339e-05, 0., -3.05327922e-02, -3.05327922e-02,
          -4.31493281e-05, 0., 0., 0., 0., 0., 0., 0., 0., 0., 0., 0.,
          0., 0., 0., 0., -8.89524166e-03, -3.01366416e-03, 0.,
          -3.73726252e-05, 0., 0., 0., -3.43378633e-05, -4.80867384e-05,
          -1.83878820e-02, -1.45275090e-02, -3.73726252e-05,
          -6.22087828e-05, 0., 0., 0., -1.14952418e-04, -6.27547270e-05,
          -1.83878820e-02, -1.48352478e-02, -7.53046043e-05,
          -3.71659848e-06, 0., 0., 0., -7.60986995e-06, -3.20578260e-06,
          -1.42429527e-02, -4.82039945e-03, -3.71659848e-06,
          -2.27577621e-05, 0., 0., -2.33065060e-04, -2.14509346e-04,
          -1.80555671e-05, -1.83878820e-02, -1.83878820e-02,
          -3.01397289e-04, -1.92166572e-05, -2.47466000e-04,
          -7.08940090e-04, 0., -5.16669279e-05, -1.32947625e-05,
          -1.34120500e-02, -4.47918614e-03, -4.21251752e-05,
          -2.66981374e-06, -6.30254811e-03, -1.76931471e-02, 0.,
          -7.44147928e-06, -3.43553279e-06, -5.82912005e-04,
          -2.26864664e-04, -7.95639517e-06, -1.08623959e-03,
          -3.79362539e-03, -1.11916419e-02, -1.10824557e-03,
          -1.05862692e-03, -1.21785887e-03, -1.76931471e-02,
          -1.59848258e-02, -1.25424308e-03, -1.38265744e-03,
          -1.76931471e-02, -1.76931471e-02, -8.61968729e-04,
          -9.54662159e-04, -1.53140351e-03, -9.84262023e-03,
          -3.46206664e-03, -9.42086219e-04, -5.10602467e-06,
          -1.47511819e-02, -1.82501506e-02, 0., -1.14022805e-05, 0., 0.,
          0., -5.10602467e-06, -3.48689514e-06, -1.66593045e-02,
          -1.82501506e-02, 0., -6.67395079e-06, 0., 0., 0.,
          -3.48689514e-06, -1.85327983e-04, -1.64999496e-02,
          -1.82501506e-02, 0., -6.61844388e-05, -1.91776067e-04, 0., 0.,
          -6.99056818e-06, -2.43206546e-06, -4.94460529e-03,
          -1.47941727e-02, 0., -6.57772398e-06, 0., 0., 0.,
          -2.43206546e-06, -1.00066718e-05, -3.05227451e-02,
          -3.05227451e-02, 0., -1.20673312e-05, 0., 0., 0.,
          -1.00066718e-05, -5.24519328e-06, -2.72916653e-03,
          -7.92272296e-03, 0., -7.12495194e-06, 0., 0., 0.,
          -5.24519328e-06, 0., -2.65256385e-03, -7.99661968e-03, 0., 0.,
          0., 0., 0., 0., 0., 0., 0., 0., 0., 0., 0., 0., 0., 0., 0., 0.,
          0., -2.15763832e-03, 0., 0., 0., 0., 0., 0., 0., 0., 0., 0.,
          0., 0., 0., 0., 0., 0., 0., 0., 0., 0., 0., 0., 0., 0., 0., 0.,
          0., 0., 0., 0., 0. ]
   decision_functions:
      -
         sv_count: 1
         rho: -1.
         alpha: [ 1. ]
         index: [ 0 ]
